<?xml version="1.0"?>
<opencv_storage>
<cascade>
  <stageType>BOOST</stageType>
  <featureType>HAAR</featureType>
  <height>46</height>
  <width>38</width>
  <stageParams>
    <boostType>GAB</boostType>
    <minHitRate>9.9500000476837158e-01</minHitRate>
    <maxFalseAlarm>5.0000000000000000e-01</maxFalseAlarm>
    <weightTrimRate>9.4999999999999996e-01</weightTrimRate>
    <maxDepth>1</maxDepth>
    <maxWeakCount>100</maxWeakCount></stageParams>
  <featureParams>
    <maxCatCount>0</maxCatCount>
    <featSize>1</featSize>
    <mode>BASIC</mode></featureParams>
  <stageNum>3</stageNum>
  <stages>
    <!-- stage 0 -->
    <_>
      <maxWeakCount>2</maxWeakCount>
      <stageThreshold>-5.7086449116468430e-02</stageThreshold>
      <weakClassifiers>
        <_>
          <internalNodes>
            0 -1 0 -7.4432671070098877e-02</internalNodes>
          <leafValues>
            8.7878787517547607e-01 -8.1954884529113770e-01</leafValues></_>
        <_>
          <internalNodes>
            0 -1 5 -3.2143354415893555e-02</internalNodes>
          <leafValues>
            7.6246243715286255e-01 -8.8159072399139404e-01</leafValues></_></weakClassifiers></_>
    <!-- stage 1 -->
    <_>
      <maxWeakCount>3</maxWeakCount>
      <stageThreshold>-6.0646450519561768e-01</stageThreshold>
      <weakClassifiers>
        <_>
          <internalNodes>
            0 -1 2 -3.5894461907446384e-03</internalNodes>
          <leafValues>
            8.9473682641983032e-01 -7.8102189302444458e-01</leafValues></_>
        <_>
          <internalNodes>
            0 -1 1 -1.1344207450747490e-03</internalNodes>
          <leafValues>
            1. -6.7201149463653564e-01</leafValues></_>
        <_>
          <internalNodes>
            0 -1 3 -1.1582318693399429e-03</internalNodes>
          <leafValues>
            8.4656888246536255e-01 -7.4307817220687866e-01</leafValues></_></weakClassifiers></_>
    <!-- stage 2 -->
    <_>
      <maxWeakCount>1</maxWeakCount>
      <stageThreshold>1.</stageThreshold>
      <weakClassifiers>
        <_>
          <internalNodes>
            0 -1 4 -5.2467202767729759e-03</internalNodes>
          <leafValues>
            -1. 1.</leafValues></_></weakClassifiers></_></stages>
  <features>
    <_>
      <rects>
        <_>
          0 3 36 7 -1.</_>
        <_>
          12 3 12 7 3.</_></rects>
      <tilted>0</tilted></_>
    <_>
      <rects>
        <_>
          4 9 2 27 -1.</_>
        <_>
          5 9 1 27 2.</_></rects>
      <tilted>0</tilted></_>
    <_>
      <rects>
        <_>
          7 4 27 9 -1.</_>
        <_>
          7 7 27 3 3.</_></rects>
      <tilted>0</tilted></_>
    <_>
      <rects>
        <_>
          8 6 13 9 -1.</_>
        <_>
          8 9 13 3 3.</_></rects>
      <tilted>0</tilted></_>
    <_>
      <rects>
        <_>
          14 42 14 4 -1.</_>
        <_>
          14 42 7 2 2.</_>
        <_>
          21 44 7 2 2.</_></rects>
      <tilted>0</tilted></_>
    <_>
      <rects>
        <_>
          16 4 18 26 -1.</_>
        <_>
          22 4 6 26 3.</_></rects>
      <tilted>0</tilted></_></features></cascade>
</opencv_storage>
